-1.645870089530944824e+00,-4.037486910820007324e-01,-2.670720815658569336e-01,3.270929813385009766e+00,-5.862953066825866699e-01,-6.461538374423980713e-02,-7.125821709632873535e-01,-6.665653586387634277e-01,2.112059742212295532e-01,-1.620262384414672852e+00,-2.124938964843750000e+00,3.658966124057769775e-01,-1.542184650897979736e-01,-6.044545769691467285e-01,6.587703824043273926e-01,-3.373417258262634277e-01,-2.877626940608024597e-02,-6.131106615066528320e-01,1.201258063316345215e+00,3.719104230403900146e-01,1.335104584693908691e+00,2.923100590705871582e-01,-9.726686477661132812e-01,-5.664276480674743652e-01,1.996867060661315918e-01,1.097457528114318848e+00,-4.142357110977172852e-01,1.204190969467163086e+00,2.888717055320739746e-01,-1.322873353958129883e+00,-1.302602410316467285e+00,7.539389729499816895e-01,6.580926775932312012e-01,7.373493909835815430e-01,-1.244725108146667480e+00,-1.296956539154052734e-01,5.600817799568176270e-01,1.529905438423156738e+00,5.755337476730346680e-01,1.016513347625732422e+00,-1.184125423431396484e+00,-1.184498190879821777e+00,-1.137490034103393555e+00,-3.217665851116180420e-01,7.197343111038208008e-01,-2.526018917560577393e-01,2.493955381214618683e-02,-1.268699526786804199e+00,3.223912715911865234e-01,2.241465568542480469e+00,-1.483745098114013672e+00,-9.538951516151428223e-02,5.234532356262207031e-01,-6.034203805029392242e-03,-2.310739040374755859e+00,-4.923245310783386230e-01,1.597185730934143066e+00,-7.452261447906494141e-01,-7.404801249504089355e-01,-6.720477342605590820e-01,2.673085331916809082e-01,-7.157288193702697754e-01,-1.078644156455993652e+00,1.510106444358825684e+00,3.507232666015625000e-01,-1.101449966430664062e+00,-9.435356259346008301e-01,-3.116627596318721771e-02,-5.905794501304626465e-01,1.435815215110778809e+00,-8.672663010656833649e-03,1.042007446289062500e+00,1.512712836265563965e+00,9.581102728843688965e-01,-7.381466031074523926e-01,-6.889425963163375854e-02,1.032071590423583984e+00,-4.053218662738800049e-01,-5.257900357246398926e-01,1.630533188581466675e-01,-1.950641274452209473e+00,3.861781656742095947e-01,1.400569796562194824e+00,-1.426501393318176270e+00,3.155620574951171875e+00,-7.010214924812316895e-01,-6.562125086784362793e-01,1.242605328559875488e+00,8.745914697647094727e-01,1.698190927505493164e+00,-2.627065479755401611e-01,1.275688886642456055e+00,1.554651975631713867e+00,-2.106722593307495117e-01,2.054395526647567749e-01,-9.216404557228088379e-01,5.121468901634216309e-01,6.563794016838073730e-01,5.245556235313415527e-01,-5.525811016559600830e-02
-1.310934662818908691e+00,-9.948620200157165527e-01,1.290168881416320801e+00,-3.075850009918212891e-01,8.712958097457885742e-01,5.370571613311767578e-01,-3.626725673675537109e-01,-3.149653673171997070e-01,-5.864921808242797852e-01,3.792912885546684265e-02,1.492031097412109375e+00,1.535169601440429688e+00,-1.105379343032836914e+00,1.548765420913696289e+00,1.234995365142822266e+00,-9.719552993774414062e-01,-3.369068726897239685e-02,-4.573432505130767822e-01,-1.578560948371887207e+00,1.253804564476013184e-01,8.056177496910095215e-01,-7.965378761291503906e-01,3.365549445152282715e-01,-4.087570607662200928e-01,2.709724009037017822e-01,-1.167993903160095215e+00,7.123666405677795410e-01,5.420241951942443848e-01,-6.372593641281127930e-01,5.671500563621520996e-01,-4.655118286609649658e-01,6.766920685768127441e-01,1.805886268615722656e+00,7.725151181221008301e-01,-2.541703879833221436e-01,-1.198870763182640076e-01,-1.246813416481018066e+00,2.959432601928710938e-01,5.112155675888061523e-01,-5.261242985725402832e-01,3.286790251731872559e-01,1.871236264705657959e-01,1.204870223999023438e+00,-1.310304403305053711e-01,6.516386270523071289e-01,1.955798268318176270e+00,1.683027744293212891e-01,5.136990547180175781e-02,8.129436969757080078e-01,9.206332564353942871e-01,3.473841771483421326e-02,7.693433761596679688e-01,1.943211853504180908e-01,2.364736050367355347e-01,1.421871036291122437e-01,-8.163028359413146973e-01,3.207771778106689453e-01,7.501336336135864258e-01,7.575635798275470734e-03,-2.508961260318756104e-01,9.804253578186035156e-01,7.778685539960861206e-02,-1.888637900352478027e+00,-2.098742246627807617e+00,1.712844520807266235e-01,-6.850270032882690430e-01,7.569336295127868652e-01,-2.761799991130828857e-01,9.345443844795227051e-01,-1.235642433166503906e+00,1.907501578330993652e+00,3.552705049514770508e-01,-5.594679713249206543e-01,-2.252804636955261230e-01,-3.780567944049835205e-01,-1.035818338394165039e+00,-1.690371155738830566e+00,-1.464883983135223389e-01,1.548197865486145020e+00,-1.097781062126159668e+00,1.168481349945068359e+00,-1.940504789352416992e+00,3.887512683868408203e-01,-2.673584222793579102e-01,7.391463518142700195e-01,1.319199681282043457e+00,9.738962650299072266e-01,8.303294181823730469e-01,-6.786540150642395020e-01,-1.237020850181579590e+00,1.369044091552495956e-02,-3.161241710186004639e-01,1.715187907218933105e+00,4.637376368045806885e-01,3.599066138267517090e-01,1.359211564064025879e+00,-4.144892990589141846e-01,-3.188110888004302979e-01,6.257141828536987305e-01,1.354869365692138672e+00
9.427613615989685059e-01,8.186477422714233398e-01,-1.332677960395812988e+00,-1.441824078559875488e+00,-8.458707332611083984e-01,5.268222093582153320e-01,3.742790222167968750e-01,-5.357236266136169434e-01,-1.166624426841735840e+00,-4.084910824894905090e-02,2.573297500610351562e+00,1.164946198463439941e+00,-1.667187452316284180e+00,-1.411068558692932129e+00,9.458665847778320312e-01,-5.337274670600891113e-01,3.686436116695404053e-01,2.001555860042572021e-01,1.135812520980834961e+00,9.893851727247238159e-02,8.794791698455810547e-01,-1.817806959152221680e+00,1.176983237266540527e+00,2.083406686782836914e+00,7.846452295780181885e-02,-3.597022593021392822e-01,9.507199525833129883e-01,-1.510445237159729004e+00,1.476647853851318359e-01,-5.358901023864746094e-01,-2.753373682498931885e-01,-6.607068777084350586e-01,-1.689220309257507324e+00,-1.394677907228469849e-01,4.631190896034240723e-01,-6.210082173347473145e-01,-2.104336917400360107e-01,-8.815863132476806641e-01,-2.390138506889343262e-01,-1.464205384254455566e-01,1.330305457115173340e+00,-1.426588654518127441e+00,8.226952552795410156e-01,-1.209330409765243530e-01,4.385568499565124512e-01,-1.166344761848449707e+00,6.280324459075927734e-01,2.661703824996948242e-01,5.651834011077880859e-01,-3.996076583862304688e-01,-8.008405566215515137e-01,2.731968164443969727e-01,-2.176122665405273438e-01,1.112236380577087402e+00,-8.046519160270690918e-01,1.818566799163818359e+00,-1.069149851799011230e+00,1.050227284431457520e+00,-7.125809788703918457e-01,8.760228008031845093e-02,3.235783874988555908e-01,-1.159012168645858765e-01,-1.171931385993957520e+00,4.135093688964843750e-01,2.523765861988067627e-01,2.537766396999359131e-01,-1.492056369781494141e+00,2.478464365005493164e+00,8.716214895248413086e-01,-2.395412176847457886e-01,6.334808468818664551e-02,-3.224125504493713379e-01,-3.993641734123229980e-01,7.461965084075927734e-01,-6.606288552284240723e-01,-1.074971079826354980e+00,1.347883462905883789e+00,3.571752309799194336e-01,-9.732422828674316406e-01,2.439634799957275391e+00,1.559038758277893066e+00,5.853387992829084396e-03,1.526631832122802734e+00,1.191191673278808594e+00,5.117605924606323242e-01,-8.641242384910583496e-01,-1.773823261260986328e+00,-4.520742893218994141e-01,-4.314761757850646973e-01,1.950226128101348877e-01,4.650245606899261475e-01,1.930874586105346680e+00,-9.420534372329711914e-01,1.797643303871154785e+00,-6.161623597145080566e-01,-1.101915359497070312e+00,6.854315400123596191e-01,1.304150104522705078e+00,2.180954813957214355e-01,1.578803211450576782e-01
